<?xml version="1.0"?>
<opencv_storage>
<stage3>
  <maxWeakCount>17</maxWeakCount>
  <stageThreshold>-1.8194627761840820e+00</stageThreshold>
  <weakClassifiers>
    <_>
      <internalNodes>
        0 -1 73314 -8.8513709604740143e-02</internalNodes>
      <leafValues>
        5.0143265724182129e-01 -7.3860514163970947e-01</leafValues></_>
    <_>
      <internalNodes>
        0 -1 151512 -1.7228242941200733e-03</internalNodes>
      <leafValues>
        3.5514917969703674e-01 -6.1672192811965942e-01</leafValues></_>
    <_>
      <internalNodes>
        0 -1 136143 -3.6156656278762966e-05</internalNodes>
      <leafValues>
        3.2543191313743591e-01 -5.7191079854965210e-01</leafValues></_>
    <_>
      <internalNodes>
        0 -1 80472 -7.7242532279342413e-04</internalNodes>
      <leafValues>
        4.3036201596260071e-01 -3.8122400641441345e-01</leafValues></_>
    <_>
      <internalNodes>
        0 -1 11125 3.2481841742992401e-02</internalNodes>
      <leafValues>
        -2.3116096854209900e-01 5.9449285268783569e-01</leafValues></_>
    <_>
      <internalNodes>
        0 -1 150919 1.5727847814559937e-02</internalNodes>
      <leafValues>
        -1.8041782081127167e-01 7.9580342769622803e-01</leafValues></_>
    <_>
      <internalNodes>
        0 -1 87911 1.1187039490323514e-05</internalNodes>
      <leafValues>
        -3.7925374507904053e-01 3.5279616713523865e-01</leafValues></_>
    <_>
      <internalNodes>
        0 -1 32050 -4.3138734996318817e-02</internalNodes>
      <leafValues>
        7.4638426303863525e-01 -1.7252007126808167e-01</leafValues></_>
    <_>
      <internalNodes>
        0 -1 159139 -3.3621848560869694e-03</internalNodes>
      <leafValues>
        5.4610192775726318e-01 -2.7626222372055054e-01</leafValues></_>
    <_>
      <internalNodes>
        0 -1 13138 -3.2873902469873428e-02</internalNodes>
      <leafValues>
        -7.2177046537399292e-01 1.6920787096023560e-01</leafValues></_>
    <_>
      <internalNodes>
        0 -1 69748 4.9121830612421036e-02</internalNodes>
      <leafValues>
        1.6033865511417389e-01 -7.0783472061157227e-01</leafValues></_>
    <_>
      <internalNodes>
        0 -1 130592 4.8143465392058715e-05</internalNodes>
      <leafValues>
        -4.0967828035354614e-01 2.5558006763458252e-01</leafValues></_>
    <_>
      <internalNodes>
        0 -1 123419 -4.0503212949261069e-04</internalNodes>
      <leafValues>
        2.3153120279312134e-01 -5.0521743297576904e-01</leafValues></_>
    <_>
      <internalNodes>
        0 -1 46101 6.8793201353400946e-04</internalNodes>
      <leafValues>
        -3.5776135325431824e-01 3.0238497257232666e-01</leafValues></_>
    <_>
      <internalNodes>
        0 -1 79504 1.7216391279362142e-04</internalNodes>
      <leafValues>
        -4.0786880254745483e-01 2.9207900166511536e-01</leafValues></_>
    <_>
      <internalNodes>
        0 -1 115907 1.8838045001029968e-01</internalNodes>
      <leafValues>
        -1.6890822350978851e-01 7.3037493228912354e-01</leafValues></_>
    <_>
      <internalNodes>
        0 -1 134011 -5.4040588438510895e-03</internalNodes>
      <leafValues>
        3.6069431900978088e-01 -3.3295735716819763e-01</leafValues></_></weakClassifiers></stage3>
</opencv_storage>
