<?xml version="1.0"?>
<opencv_storage>
<cascade>
  <stageType>BOOST</stageType>
  <featureType>HAAR</featureType>
  <height>24</height>
  <width>24</width>
  <stageParams>
    <boostType>GAB</boostType>
    <minHitRate>9.9900001287460327e-01</minHitRate>
    <maxFalseAlarm>3.0000001192092896e-01</maxFalseAlarm>
    <weightTrimRate>9.4999999999999996e-01</weightTrimRate>
    <maxDepth>1</maxDepth>
    <maxWeakCount>100</maxWeakCount></stageParams>
  <featureParams>
    <maxCatCount>0</maxCatCount>
    <featSize>1</featSize>
    <mode>BASIC</mode></featureParams>
  <stageNum>10</stageNum>
  <stages>
    <!-- stage 0 -->
    <_>
      <maxWeakCount>6</maxWeakCount>
      <stageThreshold>-2.1714661121368408e+00</stageThreshold>
      <weakClassifiers>
        <_>
          <internalNodes>
            0 -1 50 3.4233376383781433e-02</internalNodes>
          <leafValues>
            -9.0753585100173950e-01 6.0965794324874878e-01</leafValues></_>
        <_>
          <internalNodes>
            0 -1 59 -1.1091424152255058e-02</internalNodes>
          <leafValues>
            4.2963984608650208e-01 -9.1423052549362183e-01</leafValues></_>
        <_>
          <internalNodes>
            0 -1 11 1.8934689462184906e-02</internalNodes>
          <leafValues>
            -7.3412746191024780e-01 6.4659065008163452e-01</leafValues></_>
        <_>
          <internalNodes>
            0 -1 66 -3.3772010356187820e-03</internalNodes>
          <leafValues>
            5.3539186716079712e-01 -8.4065550565719604e-01</leafValues></_>
        <_>
          <internalNodes>
            0 -1 69 -3.1878709793090820e-02</internalNodes>
          <leafValues>
            6.8879228830337524e-01 -6.0123568773269653e-01</leafValues></_>
        <_>
          <internalNodes>
            0 -1 36 1.5227280091494322e-03</internalNodes>
          <leafValues>
            -7.9964792728424072e-01 4.5027163624763489e-01</leafValues></_></weakClassifiers></_>
    <!-- stage 1 -->
    <_>
      <maxWeakCount>5</maxWeakCount>
      <stageThreshold>-1.3921205997467041e+00</stageThreshold>
      <weakClassifiers>
        <_>
          <internalNodes>
            0 -1 28 -6.0348495841026306e-02</internalNodes>
          <leafValues>
            3.8492870330810547e-01 -8.5246658325195313e-01</leafValues></_>
        <_>
          <internalNodes>
            0 -1 4 -3.7000570446252823e-02</internalNodes>
          <leafValues>
            4.8602285981178284e-01 -7.2089266777038574e-01</leafValues></_>
        <_>
          <internalNodes>
            0 -1 3 -2.9687624424695969e-02</internalNodes>
          <leafValues>
            -7.3740833997726440e-01 5.5847573280334473e-01</leafValues></_>
        <_>
          <internalNodes>
            0 -1 104 -1.2339040637016296e-02</internalNodes>
          <leafValues>
            5.9531897306442261e-01 -6.2193417549133301e-01</leafValues></_>
        <_>
          <internalNodes>
            0 -1 94 -5.1730684936046600e-04</internalNodes>
          <leafValues>
            3.7316656112670898e-01 -9.0372967720031738e-01</leafValues></_></weakClassifiers></_>
    <!-- stage 2 -->
    <_>
      <maxWeakCount>12</maxWeakCount>
      <stageThreshold>-2.4064333438873291e+00</stageThreshold>
      <weakClassifiers>
        <_>
          <internalNodes>
            0 -1 76 -8.0445241183042526e-03</internalNodes>
          <leafValues>
            1.4032496511936188e-01 -8.8502269983291626e-01</leafValues></_>
        <_>
          <internalNodes>
            0 -1 61 -3.2111894339323044e-02</internalNodes>
          <leafValues>
            3.6813008785247803e-01 -7.1846735477447510e-01</leafValues></_>
        <_>
          <internalNodes>
            0 -1 16 3.7590928375720978e-02</internalNodes>
          <leafValues>
            -6.0142207145690918e-01 5.1143336296081543e-01</leafValues></_>
        <_>
          <internalNodes>
            0 -1 111 5.5529167875647545e-03</internalNodes>
          <leafValues>
            -4.6076315641403198e-01 5.4746043682098389e-01</leafValues></_>
        <_>
          <internalNodes>
            0 -1 9 9.0911433100700378e-02</internalNodes>
          <leafValues>
            -3.3462846279144287e-01 7.2149705886840820e-01</leafValues></_>
        <_>
          <internalNodes>
            0 -1 5 -7.1593739092350006e-02</internalNodes>
          <leafValues>
            8.5225111246109009e-01 -2.4541902542114258e-01</leafValues></_>
        <_>
          <internalNodes>
            0 -1 40 9.8310061730444431e-04</internalNodes>
          <leafValues>
            -7.8170353174209595e-01 3.6220422387123108e-01</leafValues></_>
        <_>
          <internalNodes>
            0 -1 53 -3.0649837572127581e-04</internalNodes>
          <leafValues>
            2.3403324186801910e-01 -8.5045486688613892e-01</leafValues></_>
        <_>
          <internalNodes>
            0 -1 33 -1.3835197314620018e-03</internalNodes>
          <leafValues>
            3.7484109401702881e-01 -5.7993113994598389e-01</leafValues></_>
        <_>
          <internalNodes>
            0 -1 7 2.0609294995665550e-02</internalNodes>
          <leafValues>
            -5.3614324331283569e-01 3.9401012659072876e-01</leafValues></_>
        <_>
          <internalNodes>
            0 -1 92 -5.2392843645066023e-04</internalNodes>
          <leafValues>
            -7.8669571876525879e-01 2.3989798128604889e-01</leafValues></_>
        <_>
          <internalNodes>
            0 -1 83 -4.5214311103336513e-04</internalNodes>
          <leafValues>
            3.0014011263847351e-01 -6.8717902898788452e-01</leafValues></_></weakClassifiers></_>
    <!-- stage 3 -->
    <_>
      <maxWeakCount>13</maxWeakCount>
      <stageThreshold>-2.5805280208587646e+00</stageThreshold>
      <weakClassifiers>
        <_>
          <internalNodes>
            0 -1 34 7.6238796114921570e-02</internalNodes>
          <leafValues>
            -8.3029198646545410e-01 3.4188035130500793e-01</leafValues></_>
        <_>
          <internalNodes>
            0 -1 42 -5.5589564144611359e-02</internalNodes>
          <leafValues>
            4.4784110784530640e-01 -5.7743924856185913e-01</leafValues></_>
        <_>
          <internalNodes>
            0 -1 69 -3.3401999622583389e-02</internalNodes>
          <leafValues>
            3.9287519454956055e-01 -5.6576669216156006e-01</leafValues></_>
        <_>
          <internalNodes>
            0 -1 89 -1.7710222164168954e-03</internalNodes>
          <leafValues>
            -7.1542870998382568e-01 2.9459115862846375e-01</leafValues></_>
        <_>
          <internalNodes>
            0 -1 90 -1.8279280047863722e-03</internalNodes>
          <leafValues>
            3.1900754570960999e-01 -8.0404430627822876e-01</leafValues></_>
        <_>
          <internalNodes>
            0 -1 47 2.3349488401436247e-05</internalNodes>
          <leafValues>
            -7.3071283102035522e-01 2.4253530800342560e-01</leafValues></_>
        <_>
          <internalNodes>
            0 -1 101 1.3932003639638424e-03</internalNodes>
          <leafValues>
            1.7936590313911438e-01 -8.3800095319747925e-01</leafValues></_>
        <_>
          <internalNodes>
            0 -1 107 -1.2678811326622963e-03</internalNodes>
          <leafValues>
            -9.3445020914077759e-01 2.4278667569160461e-01</leafValues></_>
        <_>
          <internalNodes>
            0 -1 8 1.1242446303367615e-01</internalNodes>
          <leafValues>
            -3.2452985644340515e-01 6.7259299755096436e-01</leafValues></_>
        <_>
          <internalNodes>
            0 -1 1 -1.7231898009777069e-01</internalNodes>
          <leafValues>
            8.8471186161041260e-01 -2.4367900192737579e-01</leafValues></_>
        <_>
          <internalNodes>
            0 -1 58 -1.5760572860017419e-03</internalNodes>
          <leafValues>
            3.2252836227416992e-01 -7.9342567920684814e-01</leafValues></_>
        <_>
          <internalNodes>
            0 -1 51 -2.8533191652968526e-04</internalNodes>
          <leafValues>
            -7.9963248968124390e-01 1.9052302837371826e-01</leafValues></_>
        <_>
          <internalNodes>
            0 -1 31 2.8931167908012867e-03</internalNodes>
          <leafValues>
            1.6045580804347992e-01 -8.7982606887817383e-01</leafValues></_></weakClassifiers></_>
    <!-- stage 4 -->
    <_>
      <maxWeakCount>12</maxWeakCount>
      <stageThreshold>-2.0235657691955566e+00</stageThreshold>
      <weakClassifiers>
        <_>
          <internalNodes>
            0 -1 110 -1.4412494376301765e-02</internalNodes>
          <leafValues>
            4.8520711064338684e-01 -7.8552973270416260e-01</leafValues></_>
        <_>
          <internalNodes>
            0 -1 18 7.4536174535751343e-02</internalNodes>
          <leafValues>
            -4.9875280261039734e-01 5.1833736896514893e-01</leafValues></_>
        <_>
          <internalNodes>
            0 -1 49 -3.8872383534908295e-02</internalNodes>
          <leafValues>
            3.9264541864395142e-01 -5.6543016433715820e-01</leafValues></_>
        <_>
          <internalNodes>
            0 -1 41 -9.6798464655876160e-03</internalNodes>
          <leafValues>
            -8.1575071811676025e-01 2.9670462012290955e-01</leafValues></_>
        <_>
          <internalNodes>
            0 -1 93 -3.6459139664657414e-04</internalNodes>
          <leafValues>
            2.2639605402946472e-01 -8.4961199760437012e-01</leafValues></_>
        <_>
          <internalNodes>
            0 -1 68 -2.2428847849369049e-02</internalNodes>
          <leafValues>
            -7.9389977455139160e-01 1.9558957219123840e-01</leafValues></_>
        <_>
          <internalNodes>
            0 -1 97 -3.0753533355891705e-03</internalNodes>
          <leafValues>
            3.4834358096122742e-01 -5.0917637348175049e-01</leafValues></_>
        <_>
          <internalNodes>
            0 -1 48 -8.5789046715945005e-04</internalNodes>
          <leafValues>
            -9.4571161270141602e-01 1.8468488752841949e-01</leafValues></_>
        <_>
          <internalNodes>
            0 -1 12 2.5112075731158257e-02</internalNodes>
          <leafValues>
            -3.1613636016845703e-01 6.0228830575942993e-01</leafValues></_>
        <_>
          <internalNodes>
            0 -1 65 -5.0021742936223745e-04</internalNodes>
          <leafValues>
            2.3277461528778076e-01 -7.9071289300918579e-01</leafValues></_>
        <_>
          <internalNodes>
            0 -1 52 -3.0958892311900854e-03</internalNodes>
          <leafValues>
            1.9686414301395416e-01 -7.0799112319946289e-01</leafValues></_>
        <_>
          <internalNodes>
            0 -1 100 -1.1232340708374977e-02</internalNodes>
          <leafValues>
            4.1800224781036377e-01 -3.9765423536300659e-01</leafValues></_></weakClassifiers></_>
    <!-- stage 5 -->
    <_>
      <maxWeakCount>14</maxWeakCount>
      <stageThreshold>-2.0659477710723877e+00</stageThreshold>
      <weakClassifiers>
        <_>
          <internalNodes>
            0 -1 99 -6.2525449320673943e-03</internalNodes>
          <leafValues>
            3.4604904055595398e-01 -7.7932840585708618e-01</leafValues></_>
        <_>
          <internalNodes>
            0 -1 105 -2.3433798924088478e-02</internalNodes>
          <leafValues>
            4.2792752385139465e-01 -5.8850765228271484e-01</leafValues></_>
        <_>
          <internalNodes>
            0 -1 23 1.2549476698040962e-02</internalNodes>
          <leafValues>
            -5.4544943571090698e-01 4.0296426415443420e-01</leafValues></_>
        <_>
          <internalNodes>
            0 -1 96 -3.4644792322069407e-05</internalNodes>
          <leafValues>
            2.0423717796802521e-01 -7.9370707273483276e-01</leafValues></_>
        <_>
          <internalNodes>
            0 -1 24 2.8785333037376404e-02</internalNodes>
          <leafValues>
            -2.8230646252632141e-01 5.8411067724227905e-01</leafValues></_>
        <_>
          <internalNodes>
            0 -1 14 6.8883335916325450e-04</internalNodes>
          <leafValues>
            2.3692581057548523e-01 -7.8761118650436401e-01</leafValues></_>
        <_>
          <internalNodes>
            0 -1 15 -3.1621276866644621e-03</internalNodes>
          <leafValues>
            -9.0602350234985352e-01 1.3217453658580780e-01</leafValues></_>
        <_>
          <internalNodes>
            0 -1 86 -1.3034531846642494e-02</internalNodes>
          <leafValues>
            -8.6943715810775757e-01 1.3733322918415070e-01</leafValues></_>
        <_>
          <internalNodes>
            0 -1 79 4.0290616452693939e-03</internalNodes>
          <leafValues>
            1.9600068032741547e-01 -7.5040233135223389e-01</leafValues></_>
        <_>
          <internalNodes>
            0 -1 22 4.4035188853740692e-02</internalNodes>
          <leafValues>
            -4.2377528548240662e-01 3.7556290626525879e-01</leafValues></_>
        <_>
          <internalNodes>
            0 -1 75 -1.5328308567404747e-02</internalNodes>
          <leafValues>
            4.8554092645645142e-01 -3.3707466721534729e-01</leafValues></_>
        <_>
          <internalNodes>
            0 -1 38 -7.4452504515647888e-02</internalNodes>
          <leafValues>
            -8.9554357528686523e-01 1.8836571276187897e-01</leafValues></_>
        <_>
          <internalNodes>
            0 -1 103 2.5073508732020855e-03</internalNodes>
          <leafValues>
            -3.6240398883819580e-01 4.2871871590614319e-01</leafValues></_>
        <_>
          <internalNodes>
            0 -1 30 5.8127436204813421e-05</internalNodes>
          <leafValues>
            -5.3322756290435791e-01 3.0073937773704529e-01</leafValues></_></weakClassifiers></_>
    <!-- stage 6 -->
    <_>
      <maxWeakCount>13</maxWeakCount>
      <stageThreshold>-1.9030150175094604e+00</stageThreshold>
      <weakClassifiers>
        <_>
          <internalNodes>
            0 -1 91 -8.4945242851972580e-03</internalNodes>
          <leafValues>
            5.3036439418792725e-01 -7.4222958087921143e-01</leafValues></_>
        <_>
          <internalNodes>
            0 -1 37 -4.1700616478919983e-02</internalNodes>
          <leafValues>
            4.5488640666007996e-01 -5.0477933883666992e-01</leafValues></_>
        <_>
          <internalNodes>
            0 -1 44 3.9764181565260515e-05</internalNodes>
          <leafValues>
            -7.7474480867385864e-01 1.9931077957153320e-01</leafValues></_>
        <_>
          <internalNodes>
            0 -1 70 -1.8729241564869881e-03</internalNodes>
          <leafValues>
            -9.2438346147537231e-01 1.3810518383979797e-01</leafValues></_>
        <_>
          <internalNodes>
            0 -1 70 9.2151830904185772e-04</internalNodes>
          <leafValues>
            1.8665954470634460e-01 -9.0698409080505371e-01</leafValues></_>
        <_>
          <internalNodes>
            0 -1 113 -4.1147079318761826e-03</internalNodes>
          <leafValues>
            4.2383474111557007e-01 -3.8883763551712036e-01</leafValues></_>
        <_>
          <internalNodes>
            0 -1 82 4.3297270312905312e-03</internalNodes>
          <leafValues>
            1.9735690951347351e-01 -8.7289679050445557e-01</leafValues></_>
        <_>
          <internalNodes>
            0 -1 35 3.6286422982811928e-03</internalNodes>
          <leafValues>
            1.5679851174354553e-01 -7.5446248054504395e-01</leafValues></_>
        <_>
          <internalNodes>
            0 -1 57 -8.0602588132023811e-03</internalNodes>
          <leafValues>
            2.3176150023937225e-01 -7.2192537784576416e-01</leafValues></_>
        <_>
          <internalNodes>
            0 -1 6 3.4056901931762695e-02</internalNodes>
          <leafValues>
            -4.2651051282882690e-01 4.1757646203041077e-01</leafValues></_>
        <_>
          <internalNodes>
            0 -1 26 9.9317021667957306e-03</internalNodes>
          <leafValues>
            1.5517880022525787e-01 -8.3769029378890991e-01</leafValues></_>
        <_>
          <internalNodes>
            0 -1 27 -3.4485725336708128e-04</internalNodes>
          <leafValues>
            -8.6046320199966431e-01 1.3248205184936523e-01</leafValues></_>
        <_>
          <internalNodes>
            0 -1 56 4.9827434122562408e-03</internalNodes>
          <leafValues>
            -2.4544215202331543e-01 6.1588317155838013e-01</leafValues></_></weakClassifiers></_>
    <!-- stage 7 -->
    <_>
      <maxWeakCount>13</maxWeakCount>
      <stageThreshold>-1.9165929555892944e+00</stageThreshold>
      <weakClassifiers>
        <_>
          <internalNodes>
            0 -1 29 -1.7308255657553673e-02</internalNodes>
          <leafValues>
            4.5669290423393250e-01 -7.3815459012985229e-01</leafValues></_>
        <_>
          <internalNodes>
            0 -1 98 2.4688695557415485e-03</internalNodes>
          <leafValues>
            -6.5478634834289551e-01 2.4744577705860138e-01</leafValues></_>
        <_>
          <internalNodes>
            0 -1 95 -3.1838360882829875e-05</internalNodes>
          <leafValues>
            2.6364082098007202e-01 -6.3025128841400146e-01</leafValues></_>
        <_>
          <internalNodes>
            0 -1 88 -1.7420250514987856e-05</internalNodes>
          <leafValues>
            1.7416127026081085e-01 -8.2603687047958374e-01</leafValues></_>
        <_>
          <internalNodes>
            0 -1 7 1.4631560072302818e-02</internalNodes>
          <leafValues>
            -5.5073267221450806e-01 2.8790938854217529e-01</leafValues></_>
        <_>
          <internalNodes>
            0 -1 60 -1.4732495881617069e-02</internalNodes>
          <leafValues>
            2.1753522753715515e-01 -6.8120789527893066e-01</leafValues></_>
        <_>
          <internalNodes>
            0 -1 77 -3.2703799661248922e-05</internalNodes>
          <leafValues>
            2.4938009679317474e-01 -6.3161444664001465e-01</leafValues></_>
        <_>
          <internalNodes>
            0 -1 64 -2.4590934626758099e-03</internalNodes>
          <leafValues>
            -8.5077387094497681e-01 1.7163509130477905e-01</leafValues></_>
        <_>
          <internalNodes>
            0 -1 46 2.2487377282232046e-03</internalNodes>
          <leafValues>
            -7.7156347036361694e-01 1.6318295896053314e-01</leafValues></_>
        <_>
          <internalNodes>
            0 -1 112 1.0443078354001045e-03</internalNodes>
          <leafValues>
            1.4386783540248871e-01 -8.3498597145080566e-01</leafValues></_>
        <_>
          <internalNodes>
            0 -1 0 -4.0147912502288818e-01</internalNodes>
          <leafValues>
            1.3647764921188354e-01 -8.4200668334960938e-01</leafValues></_>
        <_>
          <internalNodes>
            0 -1 13 4.4946521520614624e-02</internalNodes>
          <leafValues>
            -3.8636747002601624e-01 3.8253358006477356e-01</leafValues></_>
        <_>
          <internalNodes>
            0 -1 109 -6.1586380004882813e-02</internalNodes>
          <leafValues>
            7.5509470701217651e-01 -2.2543820738792419e-01</leafValues></_></weakClassifiers></_>
    <!-- stage 8 -->
    <_>
      <maxWeakCount>14</maxWeakCount>
      <stageThreshold>-1.8599025011062622e+00</stageThreshold>
      <weakClassifiers>
        <_>
          <internalNodes>
            0 -1 106 -5.4011801257729530e-03</internalNodes>
          <leafValues>
            2.9315069317817688e-01 -7.6993465423583984e-01</leafValues></_>
        <_>
          <internalNodes>
            0 -1 74 -1.8914233893156052e-02</internalNodes>
          <leafValues>
            -6.7225778102874756e-01 3.2552957534790039e-01</leafValues></_>
        <_>
          <internalNodes>
            0 -1 39 1.4972120698075742e-04</internalNodes>
          <leafValues>
            -7.8080612421035767e-01 1.8563170731067657e-01</leafValues></_>
        <_>
          <internalNodes>
            0 -1 55 1.7831508303061128e-03</internalNodes>
          <leafValues>
            -2.3449121415615082e-01 6.1453402042388916e-01</leafValues></_>
        <_>
          <internalNodes>
            0 -1 32 1.7422284930944443e-02</internalNodes>
          <leafValues>
            2.0607297122478485e-01 -7.4668288230895996e-01</leafValues></_>
        <_>
          <internalNodes>
            0 -1 54 -4.3681361712515354e-03</internalNodes>
          <leafValues>
            -7.9419142007827759e-01 1.3696536421775818e-01</leafValues></_>
        <_>
          <internalNodes>
            0 -1 81 -1.6495581949129701e-03</internalNodes>
          <leafValues>
            -9.0668237209320068e-01 1.2754735350608826e-01</leafValues></_>
        <_>
          <internalNodes>
            0 -1 102 -1.2239504139870405e-03</internalNodes>
          <leafValues>
            4.3554449081420898e-01 -3.0656996369361877e-01</leafValues></_>
        <_>
          <internalNodes>
            0 -1 25 4.1369371116161346e-02</internalNodes>
          <leafValues>
            1.6800905764102936e-01 -7.5310868024826050e-01</leafValues></_>
        <_>
          <internalNodes>
            0 -1 21 -3.1939962354954332e-05</internalNodes>
          <leafValues>
            2.1355614066123962e-01 -6.3091725111007690e-01</leafValues></_>
        <_>
          <internalNodes>
            0 -1 80 -5.7570502394810319e-04</internalNodes>
          <leafValues>
            -7.3837614059448242e-01 1.7327864468097687e-01</leafValues></_>
        <_>
          <internalNodes>
            0 -1 62 -8.4178764373064041e-03</internalNodes>
          <leafValues>
            -7.1539372205734253e-01 1.2793411314487457e-01</leafValues></_>
        <_>
          <internalNodes>
            0 -1 2 -2.9145930893719196e-03</internalNodes>
          <leafValues>
            3.4702819585800171e-01 -3.8455542922019958e-01</leafValues></_>
        <_>
          <internalNodes>
            0 -1 10 -8.6572431027889252e-03</internalNodes>
          <leafValues>
            3.1435224413871765e-01 -4.1476750373840332e-01</leafValues></_></weakClassifiers></_>
    <!-- stage 9 -->
    <_>
      <maxWeakCount>15</maxWeakCount>
      <stageThreshold>-1.6517263650894165e+00</stageThreshold>
      <weakClassifiers>
        <_>
          <internalNodes>
            0 -1 72 -6.2884674407541752e-03</internalNodes>
          <leafValues>
            2.3152709007263184e-01 -7.7817213535308838e-01</leafValues></_>
        <_>
          <internalNodes>
            0 -1 85 1.0845975950360298e-02</internalNodes>
          <leafValues>
            -4.8669114708900452e-01 3.9048573374748230e-01</leafValues></_>
        <_>
          <internalNodes>
            0 -1 84 2.0722266286611557e-02</internalNodes>
          <leafValues>
            1.4403527975082397e-01 -8.7536954879760742e-01</leafValues></_>
        <_>
          <internalNodes>
            0 -1 63 -8.7927728600334376e-05</internalNodes>
          <leafValues>
            -6.8681555986404419e-01 2.0189705491065979e-01</leafValues></_>
        <_>
          <internalNodes>
            0 -1 78 -1.6794603317975998e-02</internalNodes>
          <leafValues>
            -8.9027237892150879e-01 1.3831818103790283e-01</leafValues></_>
        <_>
          <internalNodes>
            0 -1 67 5.5049778893589973e-03</internalNodes>
          <leafValues>
            -4.0692874789237976e-01 3.3265876770019531e-01</leafValues></_>
        <_>
          <internalNodes>
            0 -1 87 -1.1646195780485868e-03</internalNodes>
          <leafValues>
            2.0734144747257233e-01 -6.4245104789733887e-01</leafValues></_>
        <_>
          <internalNodes>
            0 -1 20 1.6134774778038263e-03</internalNodes>
          <leafValues>
            1.5429352223873138e-01 -7.1824353933334351e-01</leafValues></_>
        <_>
          <internalNodes>
            0 -1 19 -4.4737689197063446e-02</internalNodes>
          <leafValues>
            -6.7926424741744995e-01 1.5702179074287415e-01</leafValues></_>
        <_>
          <internalNodes>
            0 -1 108 -3.8320315070450306e-05</internalNodes>
          <leafValues>
            1.7797560989856720e-01 -6.0325491428375244e-01</leafValues></_>
        <_>
          <internalNodes>
            0 -1 17 2.5936597958207130e-02</internalNodes>
          <leafValues>
            -2.1874186396598816e-01 6.2213295698165894e-01</leafValues></_>
        <_>
          <internalNodes>
            0 -1 73 -8.8368763681501150e-04</internalNodes>
          <leafValues>
            -8.2379740476608276e-01 1.5568479895591736e-01</leafValues></_>
        <_>
          <internalNodes>
            0 -1 45 1.3315225951373577e-02</internalNodes>
          <leafValues>
            -2.0552682876586914e-01 6.9684511423110962e-01</leafValues></_>
        <_>
          <internalNodes>
            0 -1 71 -2.4190102703869343e-03</internalNodes>
          <leafValues>
            2.2441545128822327e-01 -5.9915703535079956e-01</leafValues></_>
        <_>
          <internalNodes>
            0 -1 43 -3.3604109194129705e-03</internalNodes>
          <leafValues>
            5.1437425613403320e-01 -2.4149441719055176e-01</leafValues></_></weakClassifiers></_></stages>
  <features>
    <_>
      <rects>
        <_>
          0 0 18 20 -1.</_>
        <_>
          6 0 6 20 2.</_></rects>
      <tilted>0</tilted></_>
    <_>
      <rects>
        <_>
          0 0 14 11 -1.</_>
        <_>
          7 0 7 11 2.</_></rects>
      <tilted>0</tilted></_>
    <_>
      <rects>
        <_>
          0 6 18 2 -1.</_>
        <_>
          0 7 18 1 2.</_></rects>
      <tilted>0</tilted></_>
    <_>
      <rects>
        <_>
          0 13 15 1 -1.</_>
        <_>
          5 13 5 1 2.</_></rects>
      <tilted>0</tilted></_>
    <_>
      <rects>
        <_>
          0 18 16 6 -1.</_>
        <_>
          0 18 8 3 2.</_>
        <_>
          8 21 8 3 2.</_></rects>
      <tilted>0</tilted></_>
    <_>
      <rects>
        <_>
          1 0 6 24 -1.</_>
        <_>
          4 0 3 24 2.</_></rects>
      <tilted>0</tilted></_>
    <_>
      <rects>
        <_>
          1 2 14 6 -1.</_>
        <_>
          1 2 7 3 2.</_>
        <_>
          8 5 7 3 2.</_></rects>
      <tilted>0</tilted></_>
    <_>
      <rects>
        <_>
          1 3 8 12 -1.</_>
        <_>
          1 3 4 6 2.</_>
        <_>
          5 9 4 6 2.</_></rects>
      <tilted>0</tilted></_>
    <_>
      <rects>
        <_>
          1 5 8 16 -1.</_>
        <_>
          5 5 4 16 2.</_></rects>
      <tilted>0</tilted></_>
    <_>
      <rects>
        <_>
          1 6 8 16 -1.</_>
        <_>
          5 6 4 16 2.</_></rects>
      <tilted>0</tilted></_>
    <_>
      <rects>
        <_>
          1 15 7 8 -1.</_>
        <_>
          1 19 7 4 2.</_></rects>
      <tilted>0</tilted></_>
    <_>
      <rects>
        <_>
          2 2 6 12 -1.</_>
        <_>
          2 2 3 6 2.</_>
        <_>
          5 8 3 6 2.</_></rects>
      <tilted>0</tilted></_>
    <_>
      <rects>
        <_>
          2 3 4 12 -1.</_>
        <_>
          2 3 2 6 2.</_>
        <_>
          4 9 2 6 2.</_></rects>
      <tilted>0</tilted></_>
    <_>
      <rects>
        <_>
          2 3 10 8 -1.</_>
        <_>
          7 3 5 8 2.</_></rects>
      <tilted>0</tilted></_>
    <_>
      <rects>
        <_>
          2 12 4 2 -1.</_>
        <_>
          2 13 4 1 2.</_></rects>
      <tilted>0</tilted></_>
    <_>
      <rects>
        <_>
          2 12 12 2 -1.</_>
        <_>
          2 13 12 1 2.</_></rects>
      <tilted>0</tilted></_>
    <_>
      <rects>
        <_>
          3 0 12 8 -1.</_>
        <_>
          3 0 6 4 2.</_>
        <_>
          9 4 6 4 2.</_></rects>
      <tilted>0</tilted></_>
    <_>
      <rects>
        <_>
          3 3 4 10 -1.</_>
        <_>
          3 3 2 5 2.</_>
        <_>
          5 8 2 5 2.</_></rects>
      <tilted>0</tilted></_>
    <_>
      <rects>
        <_>
          3 5 6 15 -1.</_>
        <_>
          6 5 3 15 2.</_></rects>
      <tilted>0</tilted></_>
    <_>
      <rects>
        <_>
          3 7 18 12 -1.</_>
        <_>
          3 13 18 6 2.</_></rects>
      <tilted>0</tilted></_>
    <_>
      <rects>
        <_>
          3 10 2 6 -1.</_>
        <_>
          3 13 2 3 2.</_></rects>
      <tilted>0</tilted></_>
    <_>
      <rects>
        <_>
          3 14 9 2 -1.</_>
        <_>
          3 15 9 1 2.</_></rects>
      <tilted>0</tilted></_>
    <_>
      <rects>
        <_>
          3 17 10 6 -1.</_>
        <_>
          8 17 5 6 2.</_></rects>
      <tilted>0</tilted></_>
    <_>
      <rects>
        <_>
          4 0 4 14 -1.</_>
        <_>
          4 0 2 7 2.</_>
        <_>
          6 7 2 7 2.</_></rects>
      <tilted>0</tilted></_>
    <_>
      <rects>
        <_>
          4 1 12 4 -1.</_>
        <_>
          4 1 6 2 2.</_>
        <_>
          10 3 6 2 2.</_></rects>
      <tilted>0</tilted></_>
    <_>
      <rects>
        <_>
          4 4 16 20 -1.</_>
        <_>
          4 4 8 10 2.</_>
        <_>
          12 14 8 10 2.</_></rects>
      <tilted>0</tilted></_>
    <_>
      <rects>
        <_>
          4 6 3 14 -1.</_>
        <_>
          4 13 3 7 2.</_></rects>
      <tilted>0</tilted></_>
    <_>
      <rects>
        <_>
          4 12 1 2 -1.</_>
        <_>
          4 13 1 1 2.</_></rects>
      <tilted>0</tilted></_>
    <_>
      <rects>
        <_>
          5 3 10 12 -1.</_>
        <_>
          5 3 5 6 2.</_>
        <_>
          10 9 5 6 2.</_></rects>
      <tilted>0</tilted></_>
    <_>
      <rects>
        <_>
          5 5 6 4 -1.</_>
        <_>
          5 5 3 2 2.</_>
        <_>
          8 7 3 2 2.</_></rects>
      <tilted>0</tilted></_>
    <_>
      <rects>
        <_>
          5 9 3 2 -1.</_>
        <_>
          5 10 3 1 2.</_></rects>
      <tilted>0</tilted></_>
    <_>
      <rects>
        <_>
          5 13 6 4 -1.</_>
        <_>
          5 15 6 2 2.</_></rects>
      <tilted>0</tilted></_>
    <_>
      <rects>
        <_>
          6 9 18 5 -1.</_>
        <_>
          15 9 9 5 2.</_></rects>
      <tilted>0</tilted></_>
    <_>
      <rects>
        <_>
          6 19 6 2 -1.</_>
        <_>
          6 20 6 1 2.</_></rects>
      <tilted>0</tilted></_>
    <_>
      <rects>
        <_>
          7 1 12 6 -1.</_>
        <_>
          7 4 12 3 2.</_></rects>
      <tilted>0</tilted></_>
    <_>
      <rects>
        <_>
          7 14 12 1 -1.</_>
        <_>
          13 14 6 1 2.</_></rects>
      <tilted>0</tilted></_>
    <_>
      <rects>
        <_>
          7 17 6 5 -1.</_>
        <_>
          10 17 3 5 2.</_></rects>
      <tilted>0</tilted></_>
    <_>
      <rects>
        <_>
          7 18 13 4 -1.</_>
        <_>
          7 20 13 2 2.</_></rects>
      <tilted>0</tilted></_>
    <_>
      <rects>
        <_>
          8 2 12 22 -1.</_>
        <_>
          8 2 6 11 2.</_>
        <_>
          14 13 6 11 2.</_></rects>
      <tilted>0</tilted></_>
    <_>
      <rects>
        <_>
          8 18 2 4 -1.</_>
        <_>
          9 18 1 4 2.</_></rects>
      <tilted>0</tilted></_>
    <_>
      <rects>
        <_>
          8 18 4 4 -1.</_>
        <_>
          10 18 2 4 2.</_></rects>
      <tilted>0</tilted></_>
    <_>
      <rects>
        <_>
          9 8 8 12 -1.</_>
        <_>
          9 14 8 6 2.</_></rects>
      <tilted>0</tilted></_>
    <_>
      <rects>
        <_>
          9 18 9 6 -1.</_>
        <_>
          9 21 9 3 2.</_></rects>
      <tilted>0</tilted></_>
    <_>
      <rects>
        <_>
          10 1 8 2 -1.</_>
        <_>
          10 2 8 1 2.</_></rects>
      <tilted>0</tilted></_>
    <_>
      <rects>
        <_>
          10 3 2 4 -1.</_>
        <_>
          11 3 1 4 2.</_></rects>
      <tilted>0</tilted></_>
    <_>
      <rects>
        <_>
          10 5 9 2 -1.</_>
        <_>
          10 6 9 1 2.</_></rects>
      <tilted>0</tilted></_>
    <_>
      <rects>
        <_>
          10 7 12 6 -1.</_>
        <_>
          10 7 6 3 2.</_>
        <_>
          16 10 6 3 2.</_></rects>
      <tilted>0</tilted></_>
    <_>
      <rects>
        <_>
          10 17 4 6 -1.</_>
        <_>
          12 17 2 6 2.</_></rects>
      <tilted>0</tilted></_>
    <_>
      <rects>
        <_>
          10 18 2 6 -1.</_>
        <_>
          11 18 1 6 2.</_></rects>
      <tilted>0</tilted></_>
    <_>
      <rects>
        <_>
          11 0 12 8 -1.</_>
        <_>
          11 0 6 4 2.</_>
        <_>
          17 4 6 4 2.</_></rects>
      <tilted>0</tilted></_>
    <_>
      <rects>
        <_>
          11 1 7 6 -1.</_>
        <_>
          11 4 7 3 2.</_></rects>
      <tilted>0</tilted></_>
    <_>
      <rects>
        <_>
          11 2 2 6 -1.</_>
        <_>
          12 2 1 6 2.</_></rects>
      <tilted>0</tilted></_>
    <_>
      <rects>
        <_>
          11 5 4 10 -1.</_>
        <_>
          11 10 4 5 2.</_></rects>
      <tilted>0</tilted></_>
    <_>
      <rects>
        <_>
          11 6 4 6 -1.</_>
        <_>
          11 9 4 3 2.</_></rects>
      <tilted>0</tilted></_>
    <_>
      <rects>
        <_>
          11 10 8 4 -1.</_>
        <_>
          15 10 4 4 2.</_></rects>
      <tilted>0</tilted></_>
    <_>
      <rects>
        <_>
          11 11 2 2 -1.</_>
        <_>
          12 11 1 2 2.</_></rects>
      <tilted>0</tilted></_>
    <_>
      <rects>
        <_>
          11 11 2 7 -1.</_>
        <_>
          12 11 1 7 2.</_></rects>
      <tilted>0</tilted></_>
    <_>
      <rects>
        <_>
          11 12 8 8 -1.</_>
        <_>
          11 12 4 4 2.</_>
        <_>
          15 16 4 4 2.</_></rects>
      <tilted>0</tilted></_>
    <_>
      <rects>
        <_>
          11 15 10 4 -1.</_>
        <_>
          11 15 5 2 2.</_>
        <_>
          16 17 5 2 2.</_></rects>
      <tilted>0</tilted></_>
    <_>
      <rects>
        <_>
          11 18 5 6 -1.</_>
        <_>
          11 21 5 3 2.</_></rects>
      <tilted>0</tilted></_>
    <_>
      <rects>
        <_>
          11 18 7 6 -1.</_>
        <_>
          11 21 7 3 2.</_></rects>
      <tilted>0</tilted></_>
    <_>
      <rects>
        <_>
          11 18 8 6 -1.</_>
        <_>
          11 21 8 3 2.</_></rects>
      <tilted>0</tilted></_>
    <_>
      <rects>
        <_>
          11 23 3 1 -1.</_>
        <_>
          12 23 1 1 2.</_></rects>
      <tilted>0</tilted></_>
    <_>
      <rects>
        <_>
          12 4 2 1 -1.</_>
        <_>
          13 4 1 1 2.</_></rects>
      <tilted>0</tilted></_>
    <_>
      <rects>
        <_>
          12 12 12 2 -1.</_>
        <_>
          12 12 6 1 2.</_>
        <_>
          18 13 6 1 2.</_></rects>
      <tilted>0</tilted></_>
    <_>
      <rects>
        <_>
          12 17 6 2 -1.</_>
        <_>
          15 17 3 2 2.</_></rects>
      <tilted>0</tilted></_>
    <_>
      <rects>
        <_>
          12 18 8 2 -1.</_>
        <_>
          16 18 4 2 2.</_></rects>
      <tilted>0</tilted></_>
    <_>
      <rects>
        <_>
          12 20 12 2 -1.</_>
        <_>
          12 20 6 1 2.</_>
        <_>
          18 21 6 1 2.</_></rects>
      <tilted>0</tilted></_>
    <_>
      <rects>
        <_>
          13 0 6 24 -1.</_>
        <_>
          13 0 3 12 2.</_>
        <_>
          16 12 3 12 2.</_></rects>
      <tilted>0</tilted></_>
    <_>
      <rects>
        <_>
          13 0 10 8 -1.</_>
        <_>
          13 0 5 4 2.</_>
        <_>
          18 4 5 4 2.</_></rects>
      <tilted>0</tilted></_>
    <_>
      <rects>
        <_>
          13 2 2 4 -1.</_>
        <_>
          14 2 1 4 2.</_></rects>
      <tilted>0</tilted></_>
    <_>
      <rects>
        <_>
          13 5 2 10 -1.</_>
        <_>
          13 10 2 5 2.</_></rects>
      <tilted>0</tilted></_>
    <_>
      <rects>
        <_>
          13 9 2 8 -1.</_>
        <_>
          14 9 1 8 2.</_></rects>
      <tilted>0</tilted></_>
    <_>
      <rects>
        <_>
          13 20 2 4 -1.</_>
        <_>
          13 20 1 2 2.</_>
        <_>
          14 22 1 2 2.</_></rects>
      <tilted>0</tilted></_>
    <_>
      <rects>
        <_>
          14 0 1 12 -1.</_>
        <_>
          14 4 1 4 2.</_></rects>
      <tilted>0</tilted></_>
    <_>
      <rects>
        <_>
          14 3 10 4 -1.</_>
        <_>
          14 3 5 2 2.</_>
        <_>
          19 5 5 2 2.</_></rects>
      <tilted>0</tilted></_>
    <_>
      <rects>
        <_>
          14 5 8 1 -1.</_>
        <_>
          18 5 4 1 2.</_></rects>
      <tilted>0</tilted></_>
    <_>
      <rects>
        <_>
          14 7 1 2 -1.</_>
        <_>
          14 8 1 1 2.</_></rects>
      <tilted>0</tilted></_>
    <_>
      <rects>
        <_>
          14 7 10 10 -1.</_>
        <_>
          14 7 5 5 2.</_>
        <_>
          19 12 5 5 2.</_></rects>
      <tilted>0</tilted></_>
    <_>
      <rects>
        <_>
          14 9 8 4 -1.</_>
        <_>
          14 9 4 2 2.</_>
        <_>
          18 11 4 2 2.</_></rects>
      <tilted>0</tilted></_>
    <_>
      <rects>
        <_>
          14 10 8 2 -1.</_>
        <_>
          14 11 8 1 2.</_></rects>
      <tilted>0</tilted></_>
    <_>
      <rects>
        <_>
          14 11 8 2 -1.</_>
        <_>
          14 11 4 1 2.</_>
        <_>
          18 12 4 1 2.</_></rects>
      <tilted>0</tilted></_>
    <_>
      <rects>
        <_>
          14 11 8 4 -1.</_>
        <_>
          14 11 4 2 2.</_>
        <_>
          18 13 4 2 2.</_></rects>
      <tilted>0</tilted></_>
    <_>
      <rects>
        <_>
          14 17 2 4 -1.</_>
        <_>
          15 17 1 4 2.</_></rects>
      <tilted>0</tilted></_>
    <_>
      <rects>
        <_>
          15 2 6 20 -1.</_>
        <_>
          15 2 3 10 2.</_>
        <_>
          18 12 3 10 2.</_></rects>
      <tilted>0</tilted></_>
    <_>
      <rects>
        <_>
          15 5 6 4 -1.</_>
        <_>
          15 5 3 2 2.</_>
        <_>
          18 7 3 2 2.</_></rects>
      <tilted>0</tilted></_>
    <_>
      <rects>
        <_>
          15 5 6 14 -1.</_>
        <_>
          15 5 3 7 2.</_>
        <_>
          18 12 3 7 2.</_></rects>
      <tilted>0</tilted></_>
    <_>
      <rects>
        <_>
          15 13 8 2 -1.</_>
        <_>
          19 13 4 2 2.</_></rects>
      <tilted>0</tilted></_>
    <_>
      <rects>
        <_>
          15 18 2 4 -1.</_>
        <_>
          16 18 1 4 2.</_></rects>
      <tilted>0</tilted></_>
    <_>
      <rects>
        <_>
          16 2 1 18 -1.</_>
        <_>
          16 11 1 9 2.</_></rects>
      <tilted>0</tilted></_>
    <_>
      <rects>
        <_>
          16 5 2 18 -1.</_>
        <_>
          16 14 2 9 2.</_></rects>
      <tilted>0</tilted></_>
    <_>
      <rects>
        <_>
          16 7 4 4 -1.</_>
        <_>
          16 7 2 2 2.</_>
        <_>
          18 9 2 2 2.</_></rects>
      <tilted>0</tilted></_>
    <_>
      <rects>
        <_>
          16 10 7 2 -1.</_>
        <_>
          16 11 7 1 2.</_></rects>
      <tilted>0</tilted></_>
    <_>
      <rects>
        <_>
          16 11 6 6 -1.</_>
        <_>
          16 14 6 3 2.</_></rects>
      <tilted>0</tilted></_>
    <_>
      <rects>
        <_>
          16 13 5 4 -1.</_>
        <_>
          16 15 5 2 2.</_></rects>
      <tilted>0</tilted></_>
    <_>
      <rects>
        <_>
          16 14 1 2 -1.</_>
        <_>
          16 15 1 1 2.</_></rects>
      <tilted>0</tilted></_>
    <_>
      <rects>
        <_>
          16 18 2 3 -1.</_>
        <_>
          17 18 1 3 2.</_></rects>
      <tilted>0</tilted></_>
    <_>
      <rects>
        <_>
          16 18 2 4 -1.</_>
        <_>
          16 20 2 2 2.</_></rects>
      <tilted>0</tilted></_>
    <_>
      <rects>
        <_>
          17 3 3 4 -1.</_>
        <_>
          17 5 3 2 2.</_></rects>
      <tilted>0</tilted></_>
    <_>
      <rects>
        <_>
          17 10 2 5 -1.</_>
        <_>
          18 10 1 5 2.</_></rects>
      <tilted>0</tilted></_>
    <_>
      <rects>
        <_>
          17 15 6 5 -1.</_>
        <_>
          20 15 3 5 2.</_></rects>
      <tilted>0</tilted></_>
    <_>
      <rects>
        <_>
          18 11 4 2 -1.</_>
        <_>
          18 12 4 1 2.</_></rects>
      <tilted>0</tilted></_>
    <_>
      <rects>
        <_>
          18 15 2 4 -1.</_>
        <_>
          18 15 1 2 2.</_>
        <_>
          19 17 1 2 2.</_></rects>
      <tilted>0</tilted></_>
    <_>
      <rects>
        <_>
          18 17 4 4 -1.</_>
        <_>
          18 17 2 2 2.</_>
        <_>
          20 19 2 2 2.</_></rects>
      <tilted>0</tilted></_>
    <_>
      <rects>
        <_>
          19 0 4 16 -1.</_>
        <_>
          19 0 2 8 2.</_>
        <_>
          21 8 2 8 2.</_></rects>
      <tilted>0</tilted></_>
    <_>
      <rects>
        <_>
          19 7 4 12 -1.</_>
        <_>
          21 7 2 12 2.</_></rects>
      <tilted>0</tilted></_>
    <_>
      <rects>
        <_>
          19 11 2 8 -1.</_>
        <_>
          19 11 1 4 2.</_>
        <_>
          20 15 1 4 2.</_></rects>
      <tilted>0</tilted></_>
    <_>
      <rects>
        <_>
          19 11 5 2 -1.</_>
        <_>
          19 12 5 1 2.</_></rects>
      <tilted>0</tilted></_>
    <_>
      <rects>
        <_>
          19 14 3 2 -1.</_>
        <_>
          19 15 3 1 2.</_></rects>
      <tilted>0</tilted></_>
    <_>
      <rects>
        <_>
          20 0 4 14 -1.</_>
        <_>
          20 7 4 7 2.</_></rects>
      <tilted>0</tilted></_>
    <_>
      <rects>
        <_>
          20 6 2 11 -1.</_>
        <_>
          21 6 1 11 2.</_></rects>
      <tilted>0</tilted></_>
    <_>
      <rects>
        <_>
          20 8 2 16 -1.</_>
        <_>
          20 8 1 8 2.</_>
        <_>
          21 16 1 8 2.</_></rects>
      <tilted>0</tilted></_>
    <_>
      <rects>
        <_>
          20 11 4 2 -1.</_>
        <_>
          20 12 4 1 2.</_></rects>
      <tilted>0</tilted></_>
    <_>
      <rects>
        <_>
          21 4 2 10 -1.</_>
        <_>
          21 4 1 5 2.</_>
        <_>
          22 9 1 5 2.</_></rects>
      <tilted>0</tilted></_></features></cascade>
</opencv_storage>
