<?xml version="1.0"?>
<opencv_storage>
<stage4>
  <maxWeakCount>6</maxWeakCount>
  <stageThreshold>-1.6330409049987793e+00</stageThreshold>
  <weakClassifiers>
    <_>
      <internalNodes>
        0 -1 12682 1.0226051509380341e-01</internalNodes>
      <leafValues>
        -8.9013034105300903e-01 4.9218750000000000e-01</leafValues></_>
    <_>
      <internalNodes>
        0 -1 61188 8.2679539918899536e-02</internalNodes>
      <leafValues>
        -6.4096760749816895e-01 6.2313401699066162e-01</leafValues></_>
    <_>
      <internalNodes>
        0 -1 153430 -8.1622168421745300e-02</internalNodes>
      <leafValues>
        -9.2347544431686401e-01 2.1471674740314484e-01</leafValues></_>
    <_>
      <internalNodes>
        0 -1 55457 -3.7492893170565367e-04</internalNodes>
      <leafValues>
        2.0043073594570160e-01 -9.8701626062393188e-01</leafValues></_>
    <_>
      <internalNodes>
        0 -1 150114 1.1191049125045538e-03</internalNodes>
      <leafValues>
        -9.0763396024703979e-01 1.8566507101058960e-01</leafValues></_>
    <_>
      <internalNodes>
        0 -1 155539 -1.1460986919701099e-02</internalNodes>
      <leafValues>
        3.9054355025291443e-01 -5.0992399454116821e-01</leafValues></_></weakClassifiers></stage4>
</opencv_storage>
