<?xml version="1.0"?>
<opencv_storage>
<stage6>
  <maxWeakCount>8</maxWeakCount>
  <stageThreshold>-1.4676374197006226e+00</stageThreshold>
  <weakClassifiers>
    <_>
      <internalNodes>
        0 -1 158494 -3.5974133759737015e-02</internalNodes>
      <leafValues>
        4.5374450087547302e-01 -8.4587490558624268e-01</leafValues></_>
    <_>
      <internalNodes>
        0 -1 1418 2.6798564940690994e-02</internalNodes>
      <leafValues>
        -6.2536740303039551e-01 4.6410965919494629e-01</leafValues></_>
    <_>
      <internalNodes>
        0 -1 89666 -2.5102131068706512e-02</internalNodes>
      <leafValues>
        5.3741741180419922e-01 -4.0860608220100403e-01</leafValues></_>
    <_>
      <internalNodes>
        0 -1 93107 5.0252437591552734e-02</internalNodes>
      <leafValues>
        2.7453139424324036e-01 -8.6973941326141357e-01</leafValues></_>
    <_>
      <internalNodes>
        0 -1 154017 3.7096673622727394e-05</internalNodes>
      <leafValues>
        -8.5444694757461548e-01 2.1125203371047974e-01</leafValues></_>
    <_>
      <internalNodes>
        0 -1 127853 5.8408849872648716e-04</internalNodes>
      <leafValues>
        1.6363568603992462e-01 -8.6442446708679199e-01</leafValues></_>
    <_>
      <internalNodes>
        0 -1 157726 2.5273401290178299e-02</internalNodes>
      <leafValues>
        -3.2636570930480957e-01 5.7650673389434814e-01</leafValues></_>
    <_>
      <internalNodes>
        0 -1 92776 -1.0168254375457764e-02</internalNodes>
      <leafValues>
        -8.0824851989746094e-01 2.5198417901992798e-01</leafValues></_></weakClassifiers></stage6>
</opencv_storage>
