<?xml version="1.0"?>
<opencv_storage>
<stage1>
  <maxWeakCount>7</maxWeakCount>
  <stageThreshold>-1.2999142408370972e+00</stageThreshold>
  <weakClassifiers>
    <_>
      <internalNodes>
        0 -1 41038 -7.3199614882469177e-02</internalNodes>
      <leafValues>
        6.6016715764999390e-01 -7.7691882848739624e-01</leafValues></_>
    <_>
      <internalNodes>
        0 -1 12653 2.9811691492795944e-02</internalNodes>
      <leafValues>
        -4.9377110600471497e-01 6.7957651615142822e-01</leafValues></_>
    <_>
      <internalNodes>
        0 -1 147528 -2.7634954676614143e-05</internalNodes>
      <leafValues>
        3.4443983435630798e-01 -8.0508935451507568e-01</leafValues></_>
    <_>
      <internalNodes>
        0 -1 2459 -8.3104312419891357e-02</internalNodes>
      <leafValues>
        8.1023299694061279e-01 -3.4414052963256836e-01</leafValues></_>
    <_>
      <internalNodes>
        0 -1 113701 -1.2980179861187935e-02</internalNodes>
      <leafValues>
        5.8622390031814575e-01 -4.1232579946517944e-01</leafValues></_>
    <_>
      <internalNodes>
        0 -1 158979 -9.4970449572429061e-04</internalNodes>
      <leafValues>
        -8.9766353368759155e-01 3.1581351161003113e-01</leafValues></_>
    <_>
      <internalNodes>
        0 -1 154074 2.9451288282871246e-03</internalNodes>
      <leafValues>
        2.1796819567680359e-01 -9.3053179979324341e-01</leafValues></_></weakClassifiers></stage1>
</opencv_storage>
